<?xml version="1.0"?>
<opencv_storage>
<cascade>
  <stageType>BOOST</stageType>
  <featureType>HAAR</featureType>
  <height>48</height>
  <width>48</width>
  <stageParams>
    <boostType>GAB</boostType>
    <minHitRate>9.9500000476837158e-01</minHitRate>
    <maxFalseAlarm>5.0000000000000000e-01</maxFalseAlarm>
    <weightTrimRate>9.4999998807907104e-01</weightTrimRate>
    <maxDepth>1</maxDepth>
    <maxWeakCount>100</maxWeakCount></stageParams>
  <featureParams>
    <maxCatCount>0</maxCatCount>
    <featSize>1</featSize>
    <mode>BASIC</mode></featureParams>
  <stageNum>3</stageNum>
  <stages>
    <!-- stage 0 -->
    <_>
      <maxWeakCount>2</maxWeakCount>
      <stageThreshold>-3.7984183430671692e-01</stageThreshold>
      <weakClassifiers>
        <_>
          <internalNodes>
            0 -1 2 1.8953433632850647e-01</internalNodes>
          <leafValues>
            -9.8447895050048828e-01 7.0247936248779297e-01</leafValues></_>
        <_>
          <internalNodes>
            0 -1 5 -1.6157874464988708e-01</internalNodes>
          <leafValues>
            6.0463708639144897e-01 -1.</leafValues></_></weakClassifiers></_>
    <!-- stage 1 -->
    <_>
      <maxWeakCount>3</maxWeakCount>
      <stageThreshold>-1.2221893072128296e+00</stageThreshold>
      <weakClassifiers>
        <_>
          <internalNodes>
            0 -1 3 2.6047932915389538e-03</internalNodes>
          <leafValues>
            -9.7619044780731201e-01 1.</leafValues></_>
        <_>
          <internalNodes>
            0 -1 4 8.1230722367763519e-02</internalNodes>
          <leafValues>
            -9.7982418537139893e-01 6.9257915019989014e-01</leafValues></_>
        <_>
          <internalNodes>
            0 -1 1 4.4031202793121338e-02</internalNodes>
          <leafValues>
            -9.7940748929977417e-01 7.3382532596588135e-01</leafValues></_></weakClassifiers></_>
    <!-- stage 2 -->
    <_>
      <maxWeakCount>1</maxWeakCount>
      <stageThreshold>1.</stageThreshold>
      <weakClassifiers>
        <_>
          <internalNodes>
            0 -1 0 -8.7358318269252777e-03</internalNodes>
          <leafValues>
            -1. 1.</leafValues></_></weakClassifiers></_></stages>
  <features>
    <_>
      <rects>
        <_>
          0 0 20 48 -1.</_>
        <_>
          0 0 10 24 2.</_>
        <_>
          10 24 10 24 2.</_></rects>
      <tilted>0</tilted></_>
    <_>
      <rects>
        <_>
          2 5 18 12 -1.</_>
        <_>
          11 5 9 12 2.</_></rects>
      <tilted>0</tilted></_>
    <_>
      <rects>
        <_>
          10 1 28 27 -1.</_>
        <_>
          10 10 28 9 3.</_></rects>
      <tilted>0</tilted></_>
    <_>
      <rects>
        <_>
          11 36 4 9 -1.</_>
        <_>
          13 36 2 9 2.</_></rects>
      <tilted>0</tilted></_>
    <_>
      <rects>
        <_>
          18 22 21 24 -1.</_>
        <_>
          18 30 21 8 3.</_></rects>
      <tilted>0</tilted></_>
    <_>
      <rects>
        <_>
          28 4 20 40 -1.</_>
        <_>
          38 4 10 40 2.</_></rects>
      <tilted>0</tilted></_></features></cascade>
</opencv_storage>
