<?xml version="1.0"?>
<opencv_storage>
<cascade>
  <stageType>BOOST</stageType>
  <featureType>HAAR</featureType>
  <height>48</height>
  <width>48</width>
  <stageParams>
    <boostType>GAB</boostType>
    <minHitRate>9.9500000476837158e-01</minHitRate>
    <maxFalseAlarm>5.0000000000000000e-01</maxFalseAlarm>
    <weightTrimRate>9.4999998807907104e-01</weightTrimRate>
    <maxDepth>1</maxDepth>
    <maxWeakCount>100</maxWeakCount></stageParams>
  <featureParams>
    <maxCatCount>0</maxCatCount>
    <featSize>1</featSize>
    <mode>BASIC</mode></featureParams>
  <stageNum>2</stageNum>
  <stages>
    <!-- stage 0 -->
    <_>
      <maxWeakCount>2</maxWeakCount>
      <stageThreshold>-1.0985270142555237e-01</stageThreshold>
      <weakClassifiers>
        <_>
          <internalNodes>
            0 -1 0 -2.7515476103872061e-03</internalNodes>
          <leafValues>
            9.2964822053909302e-01 -9.5595318078994751e-01</leafValues></_>
        <_>
          <internalNodes>
            0 -1 1 9.4890668988227844e-02</internalNodes>
          <leafValues>
            -9.5935165882110596e-01 8.4610050916671753e-01</leafValues></_></weakClassifiers></_>
    <!-- stage 1 -->
    <_>
      <maxWeakCount>2</maxWeakCount>
      <stageThreshold>4.1928719729185104e-03</stageThreshold>
      <weakClassifiers>
        <_>
          <internalNodes>
            0 -1 3 4.9979717005044222e-04</internalNodes>
          <leafValues>
            -9.9580711126327515e-01 1.</leafValues></_>
        <_>
          <internalNodes>
            0 -1 2 -2.5811600498855114e-03</internalNodes>
          <leafValues>
            1. -9.9305075407028198e-01</leafValues></_></weakClassifiers></_></stages>
  <features>
    <_>
      <rects>
        <_>
          0 0 8 3 -1.</_>
        <_>
          0 1 8 1 3.</_></rects>
      <tilted>0</tilted></_>
    <_>
      <rects>
        <_>
          13 14 26 24 -1.</_>
        <_>
          13 14 13 12 2.</_>
        <_>
          26 26 13 12 2.</_></rects>
      <tilted>0</tilted></_>
    <_>
      <rects>
        <_>
          16 7 18 7 -1.</_>
        <_>
          22 7 6 7 3.</_></rects>
      <tilted>0</tilted></_>
    <_>
      <rects>
        <_>
          32 18 12 1 -1.</_>
        <_>
          38 18 6 1 2.</_></rects>
      <tilted>0</tilted></_></features></cascade>
</opencv_storage>
