<?xml version="1.0"?>
<opencv_storage>
<cascade>
  <stageType>BOOST</stageType>
  <featureType>HAAR</featureType>
  <height>48</height>
  <width>48</width>
  <stageParams>
    <boostType>GAB</boostType>
    <minHitRate>9.9500000476837158e-01</minHitRate>
    <maxFalseAlarm>5.0000000000000000e-01</maxFalseAlarm>
    <weightTrimRate>9.4999998807907104e-01</weightTrimRate>
    <maxDepth>1</maxDepth>
    <maxWeakCount>100</maxWeakCount></stageParams>
  <featureParams>
    <maxCatCount>0</maxCatCount>
    <featSize>1</featSize>
    <mode>BASIC</mode></featureParams>
  <stageNum>4</stageNum>
  <stages>
    <!-- stage 0 -->
    <_>
      <maxWeakCount>3</maxWeakCount>
      <stageThreshold>-1.1807194948196411e+00</stageThreshold>
      <weakClassifiers>
        <_>
          <internalNodes>
            0 -1 9 -3.6644138395786285e-02</internalNodes>
          <leafValues>
            7.0023417472839355e-01 -9.7693353891372681e-01</leafValues></_>
        <_>
          <internalNodes>
            0 -1 0 4.5948490500450134e-02</internalNodes>
          <leafValues>
            -9.2567843198776245e-01 6.5452414751052856e-01</leafValues></_>
        <_>
          <internalNodes>
            0 -1 5 3.6887429654598236e-02</internalNodes>
          <leafValues>
            -8.5831004381179810e-01 8.4365200996398926e-01</leafValues></_></weakClassifiers></_>
    <!-- stage 1 -->
    <_>
      <maxWeakCount>3</maxWeakCount>
      <stageThreshold>-1.2107104063034058e+00</stageThreshold>
      <weakClassifiers>
        <_>
          <internalNodes>
            0 -1 10 2.6114597916603088e-02</internalNodes>
          <leafValues>
            -8.8383835554122925e-01 8.1703472137451172e-01</leafValues></_>
        <_>
          <internalNodes>
            0 -1 3 5.7393612223677337e-05</internalNodes>
          <leafValues>
            -8.7753498554229736e-01 6.5715193748474121e-01</leafValues></_>
        <_>
          <internalNodes>
            0 -1 6 1.8817756325006485e-02</internalNodes>
          <leafValues>
            -9.8402398824691772e-01 5.7396286725997925e-01</leafValues></_></weakClassifiers></_>
    <!-- stage 2 -->
    <_>
      <maxWeakCount>3</maxWeakCount>
      <stageThreshold>-9.4031971693038940e-01</stageThreshold>
      <weakClassifiers>
        <_>
          <internalNodes>
            0 -1 2 7.0458337664604187e-02</internalNodes>
          <leafValues>
            -9.1080403327941895e-01 1.</leafValues></_>
        <_>
          <internalNodes>
            0 -1 8 4.5312484726309776e-03</internalNodes>
          <leafValues>
            -8.3915448188781738e-01 9.2190259695053101e-01</leafValues></_>
        <_>
          <internalNodes>
            0 -1 7 -1.3423078926280141e-03</internalNodes>
          <leafValues>
            8.0963873863220215e-01 -8.7138652801513672e-01</leafValues></_></weakClassifiers></_>
    <!-- stage 3 -->
    <_>
      <maxWeakCount>2</maxWeakCount>
      <stageThreshold>5.2459016442298889e-03</stageThreshold>
      <weakClassifiers>
        <_>
          <internalNodes>
            0 -1 1 5.0583750009536743e-02</internalNodes>
          <leafValues>
            1. -9.9475407600402832e-01</leafValues></_>
        <_>
          <internalNodes>
            0 -1 4 1.8135529011487961e-02</internalNodes>
          <leafValues>
            -9.9218243360519409e-01 1.</leafValues></_></weakClassifiers></_></stages>
  <features>
    <_>
      <rects>
        <_>
          0 10 10 28 -1.</_>
        <_>
          5 10 5 28 2.</_></rects>
      <tilted>0</tilted></_>
    <_>
      <rects>
        <_>
          3 10 22 8 -1.</_>
        <_>
          14 10 11 8 2.</_></rects>
      <tilted>0</tilted></_>
    <_>
      <rects>
        <_>
          7 23 34 24 -1.</_>
        <_>
          7 31 34 8 3.</_></rects>
      <tilted>0</tilted></_>
    <_>
      <rects>
        <_>
          14 5 2 5 -1.</_>
        <_>
          15 5 1 5 2.</_></rects>
      <tilted>0</tilted></_>
    <_>
      <rects>
        <_>
          14 16 21 27 -1.</_>
        <_>
          14 25 21 9 3.</_></rects>
      <tilted>0</tilted></_>
    <_>
      <rects>
        <_>
          20 7 26 12 -1.</_>
        <_>
          20 7 13 6 2.</_>
        <_>
          33 13 13 6 2.</_></rects>
      <tilted>0</tilted></_>
    <_>
      <rects>
        <_>
          20 17 25 21 -1.</_>
        <_>
          20 24 25 7 3.</_></rects>
      <tilted>0</tilted></_>
    <_>
      <rects>
        <_>
          27 1 6 9 -1.</_>
        <_>
          30 1 3 9 2.</_></rects>
      <tilted>0</tilted></_>
    <_>
      <rects>
        <_>
          35 4 3 10 -1.</_>
        <_>
          35 9 3 5 2.</_></rects>
      <tilted>0</tilted></_>
    <_>
      <rects>
        <_>
          38 17 10 19 -1.</_>
        <_>
          43 17 5 19 2.</_></rects>
      <tilted>0</tilted></_>
    <_>
      <rects>
        <_>
          40 15 8 32 -1.</_>
        <_>
          40 15 4 16 2.</_>
        <_>
          44 31 4 16 2.</_></rects>
      <tilted>0</tilted></_></features></cascade>
</opencv_storage>
